svm_type epsilon_svr
kernel_type rbf
gamma 0.0078125
nr_class 2
total_sv 80
rho -91.8162
SV
-0.03125 15:1 17:1 21:1 22:0.5 25:0.5 27:1 32:1 33:0.5 56:1 63:0.5 
0.03125 15:1 17:1 21:1 22:0.5 29:1 56:1 57:0.5 60:0.142857 63:0.5 65:0.8 
-0.03125 17:1 22:0.25 23:0.833333 27:1 32:1 33:0.5 36:1 40:0.5 55:1 56:0.333333 60:0.142857 61:0.142857 62:0.5 63:1 64:0.4 
0.03125 15:1 17:1 21:1 22:0.5 29:1 56:1 57:0.5 60:0.142857 63:0.5 65:0.8 
-0.03125 17:1 22:0.25 23:0.833333 27:1 32:1 33:0.5 36:1 40:0.5 55:1 56:0.333333 60:0.142857 61:0.142857 62:0.5 63:1 64:0.4 
-0.03125 15:1 17:1 21:1 22:0.5 29:1 56:0.333333 57:0.25 60:0.428571 63:0.5 65:0.4 
-0.03125 17:1 21:0.333333 22:0.5 23:0.166667 55:0.5 57:1 60:0.428571 61:0.142857 62:0.5 64:0.4 65:0.6 
0.03125 18:1 21:1 22:0.5 27:1 32:1 33:0.5 55:0.25 56:1 57:0.25 60:0.428571 61:0.285714 62:0.5 63:0.5 64:0.4 65:0.6 
-0.03125 8:1 10:1 14:0.5 15:1 16:1 21:0.333333 22:0.5 23:0.5 55:1 60:0.428571 61:0.428571 62:1 64:0.6 
0.03125 15:1 17:1 21:1 22:0.75 23:0.166667 25:0.5 29:1 33:1 37:1 40:0.5 56:1 57:0.5 60:0.142857 63:1 65:0.8 
-0.03125 17:1 22:0.75 23:0.833333 24:1 27:1 30:1 33:1 36:1 40:1 55:1 56:0.333333 60:0.142857 61:0.142857 62:0.5 63:1 64:0.6 
0.03125 15:1 17:1 22:0.5 25:0.5 56:1 57:0.25 60:0.857143 62:0.5 65:0.4 
-0.03125 15:1 17:1 21:0.333333 22:0.5 23:0.5 55:1 57:0.75 60:0.857143 61:0.142857 62:0.5 64:0.4 65:0.4 
-0.03125 15:1 18:1 22:0.5 55:0.25 56:0.666667 57:0.25 60:0.857143 61:0.285714 62:0.5 64:0.4 65:0.6 
-0.03125 15:1 16:1 21:0.333333 22:0.5 23:0.5 27:1 28:1 33:0.5 55:0.75 57:0.75 60:0.857143 61:0.428571 62:0.5 63:0.5 64:0.4 65:0.6 
-0.03125 18:1 21:1 22:0.5 27:1 32:1 33:0.5 55:0.25 56:0.666667 57:0.25 60:0.857143 61:0.571429 62:0.5 63:0.5 64:0.6 65:0.4 
0.03125 17:1 21:0.333333 22:0.5 23:0.5 55:0.75 57:0.5 60:0.857143 61:0.714286 62:0.5 64:0.6 65:0.6 
-0.03125 15:1 18:1 21:0.666667 22:0.75 23:0.833333 24:1 27:1 28:1 33:1 55:0.25 56:0.333333 60:0.857143 61:0.857143 62:0.5 63:0.5 64:0.4 
-0.03125 15:1 17:1 22:0.5 23:0.5 57:1 60:0.142857 62:0.5 65:0.6 
0.03125 15:1 18:1 21:0.666667 22:1 23:1 24:1 25:0.5 30:1 55:0.25 56:1 60:0.142857 61:0.142857 62:0.5 63:0.5 64:0.4 
-0.03125 15:1 17:1 22:0.5 23:0.5 57:1 60:0.714286 62:0.5 65:0.8 
0.03125 10:1 14:0.5 18:1 21:0.666667 23:1 25:0.5 29:1 30:1 33:0.5 55:0.25 56:1 57:0.5 60:0.714286 61:0.142857 62:1 63:0.5 64:0.4 65:1 
-0.03125 11:1 14:0.5 17:1 22:1 23:0.333333 24:1 27:1 30:1 33:1 36:1 40:0.5 55:1 56:0.333333 57:0.25 60:0.714286 61:0.285714 62:1 63:1 64:0.8 65:0.4 
0.03125 17:1 21:0.666667 22:0.5 23:0.5 55:0.5 57:0.75 60:0.714286 61:0.428571 62:0.5 64:1 65:0.6 
-0.03125 15:1 16:1 22:0.25 23:0.166667 25:0.5 27:1 28:1 33:0.5 55:0.25 56:0.666667 57:0.5 60:0.714286 61:0.571429 62:0.5 63:0.5 64:0.4 65:0.8 
0.03125 18:1 21:0.333333 22:0.5 30:1 36:1 40:0.5 55:0.75 56:0.333333 60:0.714286 61:0.714286 62:0.5 63:1 64:0.6 
-0.03125 15:1 17:1 22:0.5 23:0.5 57:0.5 60:0.714286 62:0.5 65:0.8 
0.03125 10:1 14:0.5 18:1 21:0.666667 23:1 25:0.5 29:1 30:1 33:0.5 55:0.25 56:0.333333 57:1 60:0.714286 61:0.142857 62:1 63:0.5 64:0.4 65:1 
0.03125 11:1 14:0.5 17:1 22:1 23:0.333333 24:1 27:1 30:1 33:1 36:1 40:0.5 55:0.5 56:1 57:0.25 60:0.714286 61:0.285714 62:1 63:1 64:0.8 65:0.4 
-0.03125 17:1 21:0.666667 22:0.5 23:0.5 55:1 57:0.75 60:0.714286 61:0.428571 62:0.5 64:1 65:0.6 
-0.03125 15:1 16:1 22:0.25 23:0.166667 25:0.5 27:1 28:1 33:0.5 55:0.25 56:0.666667 57:0.5 60:0.714286 61:0.571429 62:0.5 63:0.5 64:0.4 65:0.8 
0.03125 18:1 21:0.333333 22:0.5 30:1 36:1 40:0.5 55:0.75 56:0.333333 60:0.714286 61:0.714286 62:0.5 63:1 64:0.6 
0.03125 15:1 17:1 22:0.75 23:0.833333 24:1 30:1 33:0.5 56:1 62:0.5 63:0.5 
-0.03125 17:1 18:1 21:0.333333 23:0.333333 27:1 28:1 56:1 57:0.5 60:0.285714 62:0.5 63:0.5 65:0.4 
-0.03125 15:1 17:1 22:0.5 55:1 56:0.333333 57:0.75 60:0.285714 61:0.142857 62:0.5 64:0.6 65:0.4 
0.03125 15:1 20:1 21:0.333333 22:1 23:0.666667 24:1 25:0.5 55:0.5 56:0.666667 60:0.285714 61:0.285714 62:0.5 64:0.4 
-0.03125 15:1 17:1 21:0.666667 22:0.5 23:0.5 57:1 60:0.142857 62:0.5 65:0.6 
0.03125 15:1 17:1 22:0.75 23:0.5 25:1 29:1 33:0.5 55:0.25 56:1 60:0.142857 61:0.142857 62:0.5 63:0.5 64:0.4 
0.03125 18:1 21:1 22:0.75 23:0.166667 25:0.5 30:1 33:0.5 56:1 57:0.5 60:0.142857 62:0.5 63:0.5 65:0.4 
-0.03125 17:1 22:0.75 23:0.166667 25:0.5 55:1 56:0.333333 60:0.142857 61:0.142857 62:0.5 64:0.6 
0.03125 15:1 20:1 21:0.333333 22:0.25 23:0.833333 30:1 33:1 36:1 40:0.5 56:1 62:0.5 63:1 
0.03125 15:1 16:1 22:0.5 29:1 30:1 33:0.5 56:1 62:0.5 63:0.5 
0.03125 18:1 22:1 23:0.666667 24:1 56:0.333333 57:1 60:0.285714 62:0.5 65:0.4 
0.03125 15:1 16:1 21:0.333333 23:0.666667 25:0.5 55:0.5 56:1 57:0.5 60:0.285714 61:0.142857 62:0.5 64:0.4 65:0.6 
-0.03125 17:1 21:0.333333 22:0.25 23:0.833333 29:1 33:1 55:1 56:0.333333 60:0.285714 61:0.285714 62:0.5 63:0.5 64:0.4 
0.03125 15:1 18:1 21:0.666667 23:0.666667 25:0.5 56:1 57:0.25 60:1 62:0.5 65:0.6 
0.03125 8:1 10:1 14:1 15:1 16:1 21:0.666667 22:0.5 23:0.5 55:1 57:0.5 60:1 61:0.142857 62:1 64:0.4 65:0.4 
-0.03125 15:1 18:1 22:0.5 55:0.25 56:0.333333 57:0.25 60:1 61:0.285714 62:0.5 64:0.6 65:0.4 
0.03125 18:1 21:0.333333 22:0.5 23:0.166667 55:0.5 57:0.75 60:1 61:0.428571 62:0.5 64:0.4 65:0.4 
-0.03125 15:1 18:1 21:0.333333 22:0.5 55:0.25 56:0.666667 57:0.25 60:1 61:0.571429 62:0.5 64:0.4 65:0.6 
-0.03125 8:1 9:1 15:1 20:1 21:0.333333 22:0.5 23:0.5 55:0.75 57:0.5 60:1 61:0.714286 62:1 64:0.4 65:0.4 
-0.03125 15:1 17:1 23:0.333333 55:0.25 56:0.333333 57:0.25 60:1 61:0.857143 62:0.5 64:0.6 65:0.6 
0.03125 15:1 18:1 21:0.333333 22:1 23:1 24:1 56:0.333333 57:0.25 60:0.285714 62:0.5 65:0.4 
-0.03125 15:1 18:1 22:0.5 23:0.5 55:0.5 57:1 60:0.285714 61:0.142857 62:0.5 64:0.4 65:0.4 
-0.03125 15:1 16:1 21:0.333333 22:0.25 23:0.5 25:1 55:0.25 56:1 60:0.285714 61:0.285714 62:0.5 64:0.4 
-0.03125 18:1 21:0.333333 22:1 23:1 24:1 56:0.333333 57:0.25 60:0.285714 62:0.5 65:0.4 
0.03125 15:1 18:1 22:0.5 23:0.5 55:0.5 57:1 60:0.285714 61:0.142857 62:0.5 64:0.4 65:0.4 
0.03125 15:1 16:1 21:0.333333 22:0.25 23:0.5 25:1 55:0.25 56:1 60:0.285714 61:0.285714 62:0.5 64:0.4 
0.03125 17:1 21:0.333333 22:1 23:0.666667 24:1 25:0.5 56:1 57:0.5 60:0.142857 62:0.5 65:0.6 
-0.03125 15:1 16:1 22:0.5 30:1 33:0.5 55:1 56:0.333333 60:0.142857 61:0.142857 62:0.5 63:0.5 64:0.4 
0.03125 15:1 17:1 21:1 22:0.75 23:0.833333 24:1 27:1 28:1 33:0.5 56:1 57:0.5 60:1 63:0.5 65:0.6 
-0.03125 18:1 22:0.5 27:1 32:1 33:0.5 55:1 56:0.333333 57:0.25 60:1 61:0.142857 62:0.5 63:0.5 64:0.4 65:0.4 
0.03125 18:1 22:0.5 23:0.166667 55:0.5 57:0.75 60:1 61:0.285714 62:0.5 64:0.6 65:0.4 
-0.03125 15:1 18:1 21:0.333333 22:0.25 23:0.833333 55:0.25 56:0.666667 57:0.25 60:1 61:0.428571 62:0.5 64:0.4 65:0.4 
0.03125 18:1 21:0.666667 22:0.5 23:0.5 55:0.75 57:0.5 60:1 61:0.571429 62:0.5 64:0.4 65:0.8 
-0.03125 15:1 18:1 21:0.666667 22:0.75 23:0.833333 24:1 27:1 28:1 33:1 37:1 40:0.5 55:0.25 56:0.333333 57:0.75 60:1 61:0.714286 62:0.5 63:1 64:0.4 65:0.6 
0.03125 10:1 14:0.5 18:1 21:0.666667 23:0.333333 25:0.5 55:0.5 56:0.666667 57:0.25 60:1 61:0.857143 62:1 64:0.8 65:0.4 
-0.03125 15:1 17:1 21:0.666667 22:0.5 23:0.166667 55:0.75 60:1 61:1 62:0.5 64:0.6 
0.03125 15:1 18:1 22:1 23:1 24:1 25:0.5 30:1 33:0.5 36:1 40:0.5 56:1 62:0.5 63:1 
0.03125 15:1 17:1 21:1 22:0.5 29:1 56:1 63:0.5 
0.03125 15:1 17:1 22:1 23:0.666667 24:1 25:0.5 30:1 33:0.5 56:1 57:0.5 60:0.142857 62:0.5 63:0.5 65:0.8 
-0.03125 18:1 21:1 22:0.5 30:1 36:1 40:0.5 55:1 56:0.333333 60:0.142857 61:0.142857 62:0.5 63:1 64:0.6 
-0.03125 15:1 18:1 21:0.333333 22:1 23:0.666667 24:1 25:0.5 56:0.333333 57:1 60:0.142857 62:0.5 65:0.6 
-0.03125 15:1 18:1 22:1 23:0.666667 24:1 25:0.5 27:1 32:1 33:0.5 55:0.5 56:1 60:0.142857 61:0.142857 62:0.5 63:0.5 64:0.4 
0.03125 15:1 18:1 21:0.333333 22:0.75 23:0.833333 24:1 29:1 30:1 33:0.5 56:0.333333 57:0.5 60:0.428571 62:0.5 63:0.5 65:0.6 
0.03125 17:1 21:0.333333 22:0.5 27:1 28:1 33:0.5 55:0.5 56:0.333333 57:1 60:0.428571 61:0.142857 62:0.5 63:0.5 64:0.6 65:0.4 
0.03125 17:1 21:0.333333 23:1 25:0.5 55:0.5 56:1 57:0.5 60:0.428571 61:0.285714 62:0.5 64:0.6 65:0.6 
0.03125 15:1 18:1 22:0.25 23:0.833333 30:1 33:0.5 55:1 56:0.333333 60:0.428571 61:0.428571 62:0.5 63:0.5 64:0.4 
0.03125 15:1 17:1 21:1 23:0.333333 25:0.5 27:1 28:1 33:0.5 56:1 57:0.5 60:0.142857 63:0.5 65:0.6 
-0.03125 15:1 20:1 21:0.333333 22:0.25 23:0.833333 30:1 33:1 55:1 56:0.333333 60:0.142857 61:0.142857 62:0.5 63:0.5 64:0.4 
